digraph Tree {
node [shape=box, style="filled, rounded", color="black", fontname="helvetica"] ;
edge [fontname="helvetica"] ;
0 [label="petal length (cm) <= 4.85\ngini = 0.66\nsamples = 98\nvalue = [41, 57, 52]\nclass = versicolor", fillcolor="#f5fef9"] ;
1 [label="petal length (cm) <= 2.45\ngini = 0.52\nsamples = 70\nvalue = [41.0, 56.0, 3.0]\nclass = versicolor", fillcolor="#cdf8df"] ;
0 -> 1 [labeldistance=2.5, labelangle=45, headlabel="True"] ;
2 [label="gini = 0.0\nsamples = 33\nvalue = [41, 0, 0]\nclass = setosa", fillcolor="#e58139"] ;
1 -> 2 ;
3 [label="sepal length (cm) <= 4.95\ngini = 0.1\nsamples = 37\nvalue = [0, 56, 3]\nclass = versicolor", fillcolor="#44e688"] ;
1 -> 3 ;
4 [label="petal width (cm) <= 1.35\ngini = 0.5\nsamples = 2\nvalue = [0, 1, 1]\nclass = versicolor", fillcolor="#ffffff"] ;
3 -> 4 ;
5 [label="gini = 0.0\nsamples = 1\nvalue = [0, 1, 0]\nclass = versicolor", fillcolor="#39e581"] ;
4 -> 5 ;
6 [label="gini = 0.0\nsamples = 1\nvalue = [0, 0, 1]\nclass = virginica", fillcolor="#8139e5"] ;
4 -> 6 ;
7 [label="petal width (cm) <= 1.7\ngini = 0.07\nsamples = 35\nvalue = [0, 55, 2]\nclass = versicolor", fillcolor="#40e686"] ;
3 -> 7 ;
8 [label="gini = 0.0\nsamples = 32\nvalue = [0, 53, 0]\nclass = versicolor", fillcolor="#39e581"] ;
7 -> 8 ;
9 [label="sepal length (cm) <= 5.95\ngini = 0.5\nsamples = 3\nvalue = [0, 2, 2]\nclass = versicolor", fillcolor="#ffffff"] ;
7 -> 9 ;
10 [label="gini = 0.0\nsamples = 1\nvalue = [0, 2, 0]\nclass = versicolor", fillcolor="#39e581"] ;
9 -> 10 ;
11 [label="gini = 0.0\nsamples = 2\nvalue = [0, 0, 2]\nclass = virginica", fillcolor="#8139e5"] ;
9 -> 11 ;
12 [label="petal width (cm) <= 1.75\ngini = 0.04\nsamples = 28\nvalue = [0, 1, 49]\nclass = virginica", fillcolor="#843de6"] ;
0 -> 12 [labeldistance=2.5, labelangle=-45, headlabel="False"] ;
13 [label="petal width (cm) <= 1.65\ngini = 0.38\nsamples = 2\nvalue = [0, 1, 3]\nclass = virginica", fillcolor="#ab7bee"] ;
12 -> 13 ;
14 [label="gini = 0.0\nsamples = 1\nvalue = [0, 0, 3]\nclass = virginica", fillcolor="#8139e5"] ;
13 -> 14 ;
15 [label="gini = 0.0\nsamples = 1\nvalue = [0, 1, 0]\nclass = versicolor", fillcolor="#39e581"] ;
13 -> 15 ;
16 [label="gini = 0.0\nsamples = 26\nvalue = [0, 0, 46]\nclass = virginica", fillcolor="#8139e5"] ;
12 -> 16 ;
}